digraph Tree {
node [shape=box, style="filled, rounded", color="black", fontname="helvetica"] ;
edge [fontname="helvetica"] ;
0 [label=<servicios_inseguros &le; 0.5<br/>gini = 0.389<br/>samples = 34<br/>value = [9, 25]<br/>class = Peligroso>, fillcolor="#80c0ee"] ;
1 [label=<servicios &le; 2.5<br/>gini = 0.375<br/>samples = 4<br/>value = [3, 1]<br/>class = No Peligroso>, fillcolor="#eeab7b"] ;
0 -> 1 [labeldistance=2.5, labelangle=45, headlabel="True"] ;
2 [label=<gini = 0.0<br/>samples = 2<br/>value = [2, 0]<br/>class = No Peligroso>, fillcolor="#e58139"] ;
1 -> 2 ;
3 [label=<servicios &le; 11.5<br/>gini = 0.5<br/>samples = 2<br/>value = [1, 1]<br/>class = No Peligroso>, fillcolor="#ffffff"] ;
1 -> 3 ;
4 [label=<gini = 0.0<br/>samples = 1<br/>value = [0, 1]<br/>class = Peligroso>, fillcolor="#399de5"] ;
3 -> 4 ;
5 [label=<gini = 0.0<br/>samples = 1<br/>value = [1, 0]<br/>class = No Peligroso>, fillcolor="#e58139"] ;
3 -> 5 ;
6 [label=<servicios &le; 3.5<br/>gini = 0.32<br/>samples = 30<br/>value = [6, 24]<br/>class = Peligroso>, fillcolor="#6ab6ec"] ;
0 -> 6 [labeldistance=2.5, labelangle=-45, headlabel="False"] ;
7 [label=<gini = 0.0<br/>samples = 8<br/>value = [0, 8]<br/>class = Peligroso>, fillcolor="#399de5"] ;
6 -> 7 ;
8 [label=<servicios_inseguros &le; 3.0<br/>gini = 0.397<br/>samples = 22<br/>value = [6, 16]<br/>class = Peligroso>, fillcolor="#83c2ef"] ;
6 -> 8 ;
9 [label=<servicios &le; 7.0<br/>gini = 0.375<br/>samples = 4<br/>value = [3, 1]<br/>class = No Peligroso>, fillcolor="#eeab7b"] ;
8 -> 9 ;
10 [label=<servicios &le; 4.5<br/>gini = 0.5<br/>samples = 2<br/>value = [1, 1]<br/>class = No Peligroso>, fillcolor="#ffffff"] ;
9 -> 10 ;
11 [label=<gini = 0.0<br/>samples = 1<br/>value = [1, 0]<br/>class = No Peligroso>, fillcolor="#e58139"] ;
10 -> 11 ;
12 [label=<gini = 0.0<br/>samples = 1<br/>value = [0, 1]<br/>class = Peligroso>, fillcolor="#399de5"] ;
10 -> 12 ;
13 [label=<gini = 0.0<br/>samples = 2<br/>value = [2, 0]<br/>class = No Peligroso>, fillcolor="#e58139"] ;
9 -> 13 ;
14 [label=<servicios &le; 23.5<br/>gini = 0.278<br/>samples = 18<br/>value = [3, 15]<br/>class = Peligroso>, fillcolor="#61b1ea"] ;
8 -> 14 ;
15 [label=<servicios_inseguros &le; 4.5<br/>gini = 0.133<br/>samples = 14<br/>value = [1, 13]<br/>class = Peligroso>, fillcolor="#48a5e7"] ;
14 -> 15 ;
16 [label=<servicios &le; 15.0<br/>gini = 0.375<br/>samples = 4<br/>value = [1, 3]<br/>class = Peligroso>, fillcolor="#7bbeee"] ;
15 -> 16 ;
17 [label=<gini = 0.0<br/>samples = 3<br/>value = [0, 3]<br/>class = Peligroso>, fillcolor="#399de5"] ;
16 -> 17 ;
18 [label=<gini = 0.0<br/>samples = 1<br/>value = [1, 0]<br/>class = No Peligroso>, fillcolor="#e58139"] ;
16 -> 18 ;
19 [label=<gini = 0.0<br/>samples = 10<br/>value = [0, 10]<br/>class = Peligroso>, fillcolor="#399de5"] ;
15 -> 19 ;
20 [label=<servicios_inseguros &le; 9.5<br/>gini = 0.5<br/>samples = 4<br/>value = [2, 2]<br/>class = No Peligroso>, fillcolor="#ffffff"] ;
14 -> 20 ;
21 [label=<gini = 0.0<br/>samples = 2<br/>value = [2, 0]<br/>class = No Peligroso>, fillcolor="#e58139"] ;
20 -> 21 ;
22 [label=<gini = 0.0<br/>samples = 2<br/>value = [0, 2]<br/>class = Peligroso>, fillcolor="#399de5"] ;
20 -> 22 ;
}
