digraph Tree {
node [shape=box, style="filled, rounded", color="black", fontname="helvetica"] ;
edge [fontname="helvetica"] ;
0 [label="servicios_inseguros/servicios <= 0.3\ngini = 0.29\nsamples = 19\nvalue = [6, 28]\nclass = Peligroso", fillcolor="#63b2eb"] ;
1 [label="servicios_inseguros/servicios <= 0.12\ngini = 0.48\nsamples = 5\nvalue = [6, 4]\nclass = No Peligroso", fillcolor="#f6d5bd"] ;
0 -> 1 [labeldistance=2.5, labelangle=45, headlabel="True"] ;
2 [label="gini = 0.49\nsamples = 3\nvalue = [3, 4]\nclass = Peligroso", fillcolor="#cee6f8"] ;
1 -> 2 ;
3 [label="gini = 0.0\nsamples = 2\nvalue = [3, 0]\nclass = No Peligroso", fillcolor="#e58139"] ;
1 -> 3 ;
4 [label="gini = 0.0\nsamples = 14\nvalue = [0, 24]\nclass = Peligroso", fillcolor="#399de5"] ;
0 -> 4 [labeldistance=2.5, labelangle=-45, headlabel="False"] ;
}